digraph Tree {
node [shape=box, fontname="helvetica"] ;
edge [fontname="helvetica"] ;
0 [label="x[4] <= 1.5\nentropy = 1.0\nsamples = 432\nvalue = [216, 216]"] ;
1 [label="entropy = 0.0\nsamples = 108\nvalue = [0, 108]"] ;
0 -> 1 [labeldistance=2.5, labelangle=45, headlabel="True"] ;
2 [label="entropy = 0.918\nsamples = 324\nvalue = [216, 108]"] ;
0 -> 2 [labeldistance=2.5, labelangle=-45, headlabel="False"] ;
}
